image,emb_0,emb_1,emb_2,emb_3,emb_4,emb_5,emb_6,emb_7,emb_8,emb_9,emb_10,emb_11,emb_12,emb_13,emb_14,emb_15,emb_16,emb_17,emb_18,emb_19,emb_20,emb_21,emb_22,emb_23,emb_24,emb_25,emb_26,emb_27,emb_28,emb_29,emb_30,emb_31,emb_32,emb_33,emb_34,emb_35,emb_36,emb_37,emb_38,emb_39,emb_40,emb_41,emb_42,emb_43,emb_44,emb_45,emb_46,emb_47,emb_48,emb_49
微信图片_20251017223412_5_1274.jpg,5.328075,18.057087,-1.4773638,5.8491044,15.713105,-19.180357,4.3254776,11.610089,-6.078079,-8.460539,30.489723,26.916334,5.5197,-1.3684325,-16.445818,-6.7178016,14.021379,7.234032,0.10923743,0.01980298,10.838602,-10.45124,-5.1735263,-7.4927306,0.3290336,-6.3449802,-2.5249584,-4.4611206,4.3325453,5.2111216,3.374171,1.0555409,1.1275158,-1.7448593,-0.3114204,3.2022324,0.9623854,0.09503216,-0.003003038,1.8511609,-0.956001,-1.409181,2.0890872,-1.57428,-2.6135535,-1.4501122,0.9379172,-0.7994656,-0.8269187,0.75505143
微信图片_20251017223413_6_1274.jpg,-5.1306543,0.7352666,0.79018366,1.3646406,-6.3648763,-0.8326488,-5.069127,-2.1254447,-0.38650596,-0.841383,1.914375,0.85020155,-0.7526418,-3.4248362,-7.2561445,4.232,1.8733776,4.667631,-4.3378496,1.6192133,-0.20067717,1.1379468,1.3509263,3.7338588,2.193794,0.92858696,-5.073252,-2.1258593,-3.265663,0.38399336,4.5415077,1.5744888,-3.2486315,-2.3252823,-1.817653,-1.0556107,1.4686673,-0.29823744,4.8102255,0.09376528,5.0372233,-1.2051562,-1.8850452,-3.3458068,7.1630034,-1.269277,3.6557977,3.3507714,1.427658,-1.1275094
微信图片_20251017223414_7_1274.jpg,13.913887,-5.5231185,3.015196,-2.6205378,1.7401161,2.2710524,4.223611,20.640394,0.24915019,9.4926,-1.1528188,4.216737,7.509615,-4.9270115,-5.540875,-2.0712125,-10.137191,3.9631,-1.7447429,3.646805,-7.7869515,-4.215878,-4.126535,-2.6899374,3.6001713,18.937525,-0.3703696,3.0332222,8.439394,1.5345458,-7.4445434,18.034346,-5.029602,2.470001,0.665254,-3.89129,3.7130857,0.09248785,7.4225698,4.00314,4.408338,3.8978753,1.7088872,4.9103684,-3.6133704,-5.3200235,-4.35089,6.7625923,-0.42483455,-6.2671003
微信图片_20251122072052_8_1274.jpg,-9.514278,-10.618265,11.043774,1.0659864,-6.3832593,-2.4019742,3.6199012,-2.726975,2.061423,0.23857574,1.0494933,2.059975,3.7771523,-2.397686,0.10242586,-2.4948943,3.286428,-2.6172721,3.8504903,1.8207154,1.238662,2.3550293,-1.5851908,3.1274772,-0.72460234,-0.4172598,-3.5499747,-2.1271548,0.2730622,-1.2652291,-0.91533446,-1.5402309,0.76182294,-0.45369923,0.08728607,1.1459713,-3.037727,-3.191119,-3.013623,1.1404076,1.2858914,-3.110024,-1.3878591,1.3310688,-3.3200102,0.8527433,-2.1117516,1.7379798,0.22530138,-1.395655
微信图片_20251122072053_9_1274.jpg,-10.813893,-13.939185,11.744096,1.9474602,-2.7928982,-3.1230047,6.3277597,0.3085524,2.4981368,-0.6616106,0.21305329,-0.22200541,1.4210216,-1.1094466,-0.3780401,2.868799,0.6396538,-1.3387302,3.2007174,2.5643973,-0.026904432,2.1577146,-2.272414,2.5060313,1.2928649,1.7269373,-4.5909195,1.2541938,-1.0257168,-0.10720633,3.4716437,0.79464144,2.5360904,0.4198574,2.147639,1.4889928,-3.3202302,-0.15469033,1.7023913,3.167072,3.202642,-4.1485276,0.2558402,-0.22912677,-2.2016132,4.1040106,-2.63531,-0.001535591,-6.7569175,-2.2768583
微信图片_20251122072055_10_1274.jpg,-7.725588,-11.118594,16.504383,3.9540641,-1.2128751,-1.3285005,3.7030864,2.9768639,3.6806786,0.22111578,-0.6300859,-1.6561084,2.217171,-1.2019765,0.84000146,-4.207168,-0.17758209,-2.2105477,1.8776299,-0.21918932,-0.29519668,3.8979182,-4.7085576,-5.550569,-1.643809,-6.657167,7.1860847,2.166574,1.7561221,3.543013,-2.380353,-3.3244114,-4.6009665,-0.341489,-3.05904,-4.207018,5.235512,1.8018092,1.1461481,-3.2828023,-4.4645915,2.4067326,3.8632896,-1.8022468,1.9729266,0.34840164,2.8688207,0.86677486,5.5785804,3.3827527
微信图片_20251122072057_11_1274.jpg,-10.137114,-11.339629,12.6408415,2.5035799,-7.0215898,-0.6569796,2.2724464,-3.8928063,2.85607,0.3788309,1.4031898,1.0256364,3.6112678,-2.990345,-0.45203748,-1.527829,3.5543199,-3.9251745,3.4831758,1.6526686,0.8268892,3.289825,-0.4882961,3.4632754,1.8276364,-1.0846767,-3.858058,-1.446311,-0.27040464,-1.5297352,-0.09379536,-0.72130346,1.383993,0.93130845,0.72370505,2.1448379,-1.4174737,-1.7542331,-2.393639,1.3974339,2.0138404,-1.9265974,-2.7797797,4.8120613,-2.2335098,-0.5157377,-2.392616,0.987824,0.36581272,-2.2220893
微信图片_20251122072058_12_1274.jpg,-11.404044,-11.510067,11.438033,1.5272793,-4.2236342,-1.6235005,3.3375897,-1.7488924,2.6771972,-0.42229965,0.59318894,-1.5528073,0.25833324,-1.2378055,-1.5238527,1.6190006,1.6786766,-1.7822689,3.65815,0.8082764,1.0923488,1.7750444,-1.6841486,1.1265761,2.001135,1.9780939,-2.3333812,-2.6564832,-1.1563696,0.13157362,0.5600807,-0.6327497,2.0597792,-0.80372,1.6434427,1.3343936,-1.704707,-1.1723803,1.8203812,2.587406,1.0754735,-1.9091012,-0.42745787,-1.1713077,-0.20935044,2.0442617,-2.9798086,-0.7724492,-5.470226,-2.484245
微信图片_20251122072100_13_1274.jpg,-2.2485716,-6.468637,17.699078,2.947812,-0.20271285,-2.9124734,5.4775324,7.1727896,6.7626038,-0.122962184,5.2974834,-5.358033,-0.9323143,-2.9433508,-4.9758744,0.24499169,-3.1751244,-7.1539307,-1.3888162,-1.6675045,-3.281961,9.235901,-1.7783011,-10.488479,3.972406,-6.431639,17.07722,5.8988247,-0.24830624,10.320589,1.4650078,-9.156373,-4.2675157,-6.270814,-4.2694583,-9.9540205,7.1564665,5.580249,2.3529112,-3.9163995,-3.2235892,-1.4744492,-5.843584,-8.929468,-6.0135427,-2.6759076,-6.7998385,1.7908838,-5.3149924,-4.6899576
微信图片_20251122072101_14_1274.jpg,-6.557876,-11.639798,15.24375,4.533042,-3.549869,-0.27971637,5.488912,1.0400486,1.8141677,0.49915665,-2.84395,2.966482,-0.3620713,-0.8307671,-1.3892738,-2.6961339,1.2439125,0.5973358,0.5298784,-1.0444703,-2.122192,2.6895447,-3.3957148,1.7062604,-2.518181,2.2713861,0.09954455,1.5507168,-1.1032879,1.1797497,0.11453324,2.2085133,0.69431895,4.1188784,1.0549743,0.056889676,-1.5690883,0.17353338,2.7352347,1.0537958,-1.0771126,-2.8935857,4.6662025,-4.338341,-1.5559325,-2.5722933,5.9858646,4.870345,-5.7771173,11.909622
微信图片_20251122072103_15_1274.jpg,-8.175166,-9.39341,15.371358,1.5317293,-4.0846543,0.11240481,1.025069,-0.6365415,3.8462205,-0.61898273,0.83793175,2.629201,3.5352323,-2.4421496,2.5691814,-4.9401937,1.4120275,-0.61307234,1.9330599,2.3379364,-0.0054176366,2.7778432,-3.3067384,1.2511691,-2.7874222,-1.6638021,-0.7860373,-0.9631565,3.5900686,0.5579633,-2.768108,-1.116861,-0.6533566,-0.80101156,1.1196783,1.1724644,0.9413321,-3.1738832,-3.0390532,-1.8155776,-1.2902529,1.3062257,0.2431237,3.6235101,0.90853447,-1.6876758,-0.025017118,1.0588205,4.976831,2.382474
微信图片_20251122072105_16_1274.jpg,-9.299268,-14.835578,15.455606,1.8005525,-1.4476521,-2.875031,4.208925,4.015854,1.1234363,-0.29632795,-1.8954315,1.0128165,-0.17179643,0.13571459,-0.054544102,-0.7133362,-0.60646236,-0.39004156,0.2141432,1.30552,-0.7206337,-0.65850306,-2.2301853,0.34498948,-1.1186908,3.563958,0.1780731,1.8568456,0.5561434,1.4049997,0.1573884,1.3477168,0.91295785,1.346138,-0.35514882,0.04057709,0.060754526,1.288972,1.0449134,2.4453838,1.045138,2.0283892,2.6014795,-1.0540944,0.6784895,3.113904,4.382065,-0.990515,-0.91119695,4.5019374
微信图片_20251122072107_17_1274.jpg,-8.684892,-13.760637,16.013048,2.9454553,-3.162695,-1.0007497,2.9337552,2.2769258,1.3273925,-1.6251267,-1.4062413,0.47069442,0.25343794,0.19308154,0.061909635,-2.3334234,-0.40690053,-1.4399865,1.9472451,0.63123715,-0.99835736,1.5059254,-4.1755843,-0.17262775,-2.6701782,0.32112405,1.4398192,0.7227229,0.9026615,-0.7234856,-1.3274823,1.440061,-0.09953167,-0.2802098,0.45923483,1.433736,1.9412892,0.4513954,0.123797424,-0.8851781,-0.16520846,4.241236,4.4415393,-1.1550246,4.9336133,1.1827435,7.4106483,0.23949881,0.9810646,7.5755167
微信图片_20251122072108_18_1274.jpg,-9.598476,-15.2373295,13.784263,4.890043,-1.8505212,-5.376969,7.0844207,2.7770321,3.085023,0.67579,2.2826102,-0.86492217,-1.6217415,-0.07765176,0.3274105,3.5632472,1.1518962,-2.5539863,5.491069,1.8740078,-0.03327077,1.5945547,-1.9650037,4.493987,1.5028747,6.5405917,-3.6021743,2.0995889,-0.69342786,0.47559577,0.080873646,-0.91831267,4.1095524,-1.9037831,1.0530161,2.6168213,-1.9275607,2.498729,2.3716803,3.3104112,0.33850333,2.5385025,3.7938914,-5.1187487,3.386351,1.5612985,4.4032426,3.4984663,-5.026841,0.7527833
微信图片_20251122072110_19_1274.jpg,-11.952129,-11.38775,11.597743,1.7727051,-4.7260604,-1.9060004,3.1711009,-1.707419,1.1173415,-0.36379382,0.07195949,-0.5416692,0.58892924,-1.003879,-0.60107356,-0.31363177,2.018433,-0.95156014,2.3712993,1.2079763,0.08598789,1.4705809,-2.9307249,1.7687722,1.8074224,1.5541531,-1.9370517,-1.3659312,-1.0698497,0.06505595,1.182478,1.0256371,0.8955415,-0.054550726,1.4052231,1.3186377,-1.3135237,-0.04943292,-0.82076037,2.8144622,-0.008243305,-1.29486,0.1157163,0.28243977,-0.96861565,1.3215741,-0.25869825,-1.0738542,-3.2686455,-1.1262333
微信图片_20251122072112_20_1274.jpg,-5.2896323,-7.029964,13.876064,2.6872358,3.2576349,1.9544184,1.3864933,3.8706555,2.1114333,-2.4584086,0.029464755,2.4466512,6.581567,-0.9975289,1.1837323,-6.2369447,-1.9562786,-3.781725,0.88882744,0.61095166,-1.1249268,2.362989,-0.8241628,-3.3750277,-1.099643,0.31976795,5.4485283,-1.3651371,8.063566,0.584655,-1.7268534,-4.3371725,-2.8914647,-1.1358277,-1.0942208,-1.5257629,0.42630076,-1.1259905,-1.2850845,-1.2207997,-0.11561579,6.5155406,4.5434384,11.8161745,1.4117726,10.561342,5.113295,-6.122006,5.7692556,-1.654928
微信图片_20251122072113_21_1274.jpg,-8.472558,-5.0993843,15.271711,5.5877995,1.2113929,-4.18009,1.0673103,-2.5702236,0.66155636,0.64320475,-0.8481224,5.46541,0.8431289,0.20785967,2.3796933,-2.308614,1.7453995,3.8514504,2.1589346,-0.8112815,0.22902763,2.947379,4.3334675,5.615593,-2.0287662,1.7175142,-0.83905,1.8249089,0.2677734,-1.5084693,-0.3541402,-0.37554193,0.26509726,1.1906937,4.9591875,2.7973242,-2.6983309,-3.514351,-1.1426287,-5.3987303,-0.9425228,-0.9290814,-4.0514836,-0.7426509,3.2791874,-6.2535925,-1.7057352,4.7248263,7.1883125,0.6587576
微信图片_20251122072115_22_1274.jpg,-10.422332,-9.559395,12.321237,3.9290118,-2.786806,-3.6547592,2.624307,-5.7563148,3.2905297,0.9017076,2.3166525,1.7293632,-0.09917992,-1.0336214,-2.2203655,-1.4344335,4.9046793,-1.6403441,3.5508995,-0.43352768,0.37936282,1.498549,0.8509566,3.2281592,3.0638626,-1.1838846,-2.6759043,-2.7307243,-0.37374252,-2.751297,1.8651037,1.4848189,0.6785022,1.4931198,1.0689223,1.5930678,-2.7449095,-1.6016927,-1.9042554,-2.3370986,-0.89097023,-3.2914891,-8.078634,2.883637,1.8399963,-6.098831,-5.303769,0.2027941,3.423347,-6.2097135
微信图片_20251122072117_23_1274.jpg,-10.097539,-11.223191,16.20538,3.521458,-4.2753963,-1.6775223,2.4452357,-3.4323518,3.4074953,-0.12112295,2.537205,0.6153352,2.666457,-3.224186,1.3352132,-2.3245838,4.3606467,-2.4922228,4.650285,2.4889143,1.3330013,1.496614,-1.5163863,2.6507266,0.5695312,-1.7983465,-2.6922908,-4.364057,0.69336396,-0.28272966,-2.0397277,-2.2285483,0.061105434,3.0293896,2.1531024,1.6610308,-2.5465496,-3.1207464,-5.0021195,-1.8504596,-0.028757552,-2.2538743,-3.3306887,3.3434334,1.8568994,-5.7024527,-4.9227147,-2.9948905,2.8873975,-1.921892
微信图片_20251122072119_24_1274.jpg,-7.974472,-11.024918,11.068813,4.628443,7.540406,-1.3780391,2.7446363,-4.8529325,-2.8899736,-0.38353413,-0.26772794,-3.3688872,-2.7725763,6.7298636,-0.57758605,3.9384322,1.5510569,0.7866155,-1.4320378,3.3720698,0.105012596,-9.15232,1.396224,-4.0062404,2.3421504,-0.6520407,2.459272,-7.9105773,-9.604319,-12.214951,9.092586,-0.033770736,0.9305969,8.372377,-4.690407,-3.4171357,8.459082,-10.622213,2.0428147,2.8312764,-1.4969774,19.867914,3.4720192,-4.808439,-0.53651106,-3.8709135,0.0867396,-6.1208777,-1.3714837,-7.503102
微信图片_20251122072120_25_1274.jpg,-7.7395086,-13.623884,18.60101,6.006109,9.499035,-3.8441823,5.151886,3.1060083,0.31678063,-2.6542249,-3.9235148,1.2938018,-6.481411,11.691233,9.7988405,4.574645,-8.811635,10.027734,-13.867569,-4.858402,4.177653,-9.683325,10.054996,-9.675159,-5.672746,-5.769553,-4.391722,4.9071717,-0.9993606,-0.21590415,-2.915924,3.0556018,0.14983718,-1.1509087,-5.501323,3.0034554,-2.297108,3.5116742,-1.2712675,0.056764208,0.49417827,-2.0674295,0.5151279,-0.2418238,-1.7141153,-0.84571517,-1.8589357,-3.6289103,3.6715574,-1.1197159
微信图片_20251122072121_26_1274.jpg,-7.846118,-12.993824,16.61062,3.685921,9.566927,-3.0773547,4.0643454,5.3526697,1.6508509,-6.219261,-3.9436116,-1.1223013,-5.8106894,10.051055,9.070665,4.2856026,-7.225895,8.421587,-12.5391865,-5.086107,4.12938,-7.461861,7.1772747,-6.8210573,-4.356073,-4.2222695,-5.6559334,5.769839,0.10119434,0.82768166,-4.6422353,3.111477,1.5110054,-3.5491827,-3.4249637,4.892167,-3.786856,2.0075207,-0.64371794,-0.77477425,2.831106,-5.0420766,0.36451918,1.2338707,-0.4660353,2.4658833,-0.72442454,1.8049228,-2.0690384,-2.6194928
微信图片_20251122072122_27_1274.jpg,-5.1888065,1.6387719,-5.4765515,-4.413416,-5.7163515,1.1589288,-5.6741986,2.8311086,-0.49026623,-1.1831055,-1.9796472,0.84319246,-3.0448978,2.1183968,-1.7922188,2.8094192,-3.9578633,0.1976178,-1.721372,-0.9578043,-3.915467,-0.27035657,2.606527,3.6074898,1.1926306,-2.0899718,-0.9395962,-2.2449465,-1.8459768,3.245576,2.3316166,0.67608494,-2.992771,0.09175959,-0.0027100989,-0.016191555,1.6924186,0.41205227,-1.0395566,-0.9768202,-1.6729393,-0.10944549,-0.1358884,1.5130533,3.140282,-1.7063895,-0.5403579,-2.4150472,-1.3978207,2.0399525
微信图片_20251122072123_28_1274.jpg,-5.384903,-2.9704154,-5.5703764,9.2859535,-6.7022314,-0.055735298,-0.17568053,-2.395627,-1.1193333,1.392613,-5.3034124,2.649419,-1.1144096,1.1608505,-6.6426373,2.38377,0.46944338,-4.444648,-3.7412493,-3.9911923,-0.95561916,-2.4189646,9.601858,3.712881,11.6923685,6.2478495,-2.9810898,-4.8470016,-7.552045,-3.2755797,7.9614906,1.1623032,-10.104402,-8.146245,2.5779483,7.6838703,9.47242,10.964555,-10.59367,-1.2930692,-3.654278,-0.31222674,11.828576,3.6613784,-7.384979,-3.2316346,-1.3641573,2.2675035,-1.4895319,6.1124163
微信图片_20251122072124_29_1274.jpg,-0.059312087,0.65198195,-10.126263,-3.0620844,6.1263475,-3.6166735,3.8322072,7.8549185,-1.6503831,-4.1811585,1.1914889,-0.33213174,-1.6011353,2.5265567,8.996604,3.0620859,-1.9681817,-2.9760704,10.250889,1.5456653,-3.8142748,-2.611715,-4.188564,3.923534,0.86396384,1.9111613,-5.1901298,0.4762947,1.0264736,1.0429964,5.3099637,0.22376049,1.5288649,-0.2066456,2.0740185,-7.460516,-4.5169883,2.3946762,-2.2774882,-0.57631594,2.3558712,-2.8302999,3.5846443,-7.6612263,0.61040336,3.4631562,0.4204989,-6.403399,-0.26533866,1.0431465
微信图片_20251122072340_30_1274.jpg,-3.3966098,9.488339,0.30595687,-7.759496,-10.785888,-4.831188,-3.631595,-4.110725,-2.0304432,-1.147532,-0.80489385,-2.8397799,1.9361616,1.0270039,-0.8056134,-2.7229302,1.7295942,1.7007068,0.6713303,1.6156884,2.2344027,-1.9022255,-1.6327909,-0.8885186,-2.7826395,-3.1233928,-3.570025,-0.08978733,-0.28196794,-1.6150672,-1.2142688,1.6407508,-2.34097,2.8620663,0.3323333,2.6300719,1.6511157,3.6394134,4.359817,-2.493448,-1.2222782,2.339812,-1.7677205,-0.45765305,-2.5352135,0.95410275,-1.7891352,-3.4718058,-2.6215649,-0.43555295
微信图片_20251122072341_31_1274.jpg,1.6538638,15.885825,5.143356,-6.0422435,-9.2520275,-3.8853438,3.1316211,-4.9914045,0.12516947,-1.4127145,-3.0421429,-1.8839413,3.13381,2.0695918,-1.0410739,-0.14531118,-1.4151105,6.1941156,-3.4882514,3.3361797,-1.216486,1.316213,-6.2892137,-0.5649276,-1.0341812,1.4235159,-5.4117055,0.85414606,-4.3145328,-2.1875725,0.38776726,1.0688616,1.9675266,-3.686327,-0.8459046,-2.6516938,6.1823373,4.619665,1.8405751,-3.939902,-0.054948192,0.6515375,-8.532397,1.0219018,0.91229707,-5.599691,6.687201,1.5566458,1.7544618,2.387592
微信图片_20251122072344_32_1274.jpg,-6.8713255,-2.4805338,-4.918093,-4.1454086,-0.47213176,2.3992705,-5.4849925,3.7639563,-3.2184336,-0.68671954,-1.8818657,0.47595084,-0.32562342,-0.63128155,-0.9416143,-0.2888703,-4.0341783,2.5661697,1.1638258,-2.1781726,-4.9450655,-2.355245,-2.292048,-1.7468764,0.015832476,-3.3380742,-0.9024336,-0.072272934,-2.782734,1.0268692,4.2365417,0.27727234,-1.12118,1.8617901,-0.06069281,-0.8733407,-0.26539025,0.6419233,-1.387328,0.14651737,-0.9354189,-2.9924817,-0.5425856,-0.2919051,2.6661325,-2.2943552,-0.2270668,-4.315553,-0.8057871,3.3181255
微信图片_20251122072347_33_1274.jpg,-6.5005417,2.5383651,-1.7921115,-2.7870603,-4.1055746,2.338368,-10.092825,-2.180002,-2.7185302,-2.0533664,-1.5020068,0.8747439,-0.22170913,-0.648146,-1.2415397,-0.42223114,-0.7308064,1.6015775,-0.76545894,0.9052916,-3.4654632,-0.83457065,-0.21067268,-0.612378,2.6295981,-5.808682,0.06765827,1.9948032,0.672135,0.5582291,-0.32366252,0.8276269,-0.11547028,3.3057678,-0.027927993,1.5175127,2.7841737,0.5502883,-0.8770069,0.99912554,-0.6761921,-2.5823462,-0.13883695,0.37565938,2.5747604,-1.795572,-0.50870895,-2.1902022,-1.5380607,1.3570793
微信图片_20251122072349_34_1274.jpg,3.8126464,17.918367,4.8456793,-5.834549,-13.749832,-9.926004,3.7340686,-5.316587,3.1187422,-0.99256223,1.5758805,-4.9128575,-0.9541143,4.5929923,-4.1601443,-1.737077,-1.991806,0.88398343,-1.0218796,0.47964996,-1.142131,-0.18269986,1.0554969,-1.0366734,-4.824142,-0.11431381,-3.2044199,0.41883186,-2.6281903,0.22257952,-0.6929566,1.7448068,0.35231012,-0.6613623,-2.3238008,-3.4375224,6.9104495,2.9797645,1.1809638,-4.71788,3.1635227,-0.2559641,-9.0246725,3.554986,1.3802356,-6.168828,3.8790731,1.9132291,1.1391085,1.4309034
微信图片_20251122072352_35_1274.jpg,-4.931419,-1.2929163,-3.3363948,-4.221031,-7.115814,0.034083933,-4.183212,6.598276,-4.5586286,-0.11786741,0.039235476,-0.7103151,-0.52424294,1.1225643,-1.3446292,2.4474256,-4.3666706,1.1825701,0.35279846,0.40862423,-2.0643806,1.1528307,1.5667853,4.3361974,-1.8524106,-2.0420816,0.27582306,-2.4719718,-3.6109772,6.666969,-1.1910512,1.1963475,0.13996828,-2.7289875,0.70213175,-0.5518744,2.7671437,-2.3825269,-0.31733206,1.5121706,5.512628,3.2307587,-0.46670556,-0.9089622,-1.7113608,-1.6448097,1.2590241,-2.4245634,-0.028057003,2.0427325
微信图片_20251122072355_36_1274.jpg,-4.825361,-2.1368103,-9.503692,-5.0966134,-1.1910946,0.035474386,-3.3713377,10.377657,-4.4130588,-2.8687224,-0.12810354,2.7328558,-1.0261085,0.41498205,2.3470507,2.3963878,-7.0189486,1.3771533,3.62043,0.30156738,-1.8364588,1.101377,-2.3064237,3.2570293,-1.746902,-3.5319738,0.16295029,0.44972765,-4.435703,4.981235,0.024907658,2.5026462,2.1172109,0.29274985,-0.13444312,1.0914801,-0.141575,-3.716692,-0.9065061,-1.4032127,-2.4685047,-0.6362125,-1.1006764,-1.8629671,0.50711274,-5.6849017,0.6027629,-2.591793,1.9124124,1.3263918
微信图片_20251122072357_37_1274.jpg,-5.7511334,-3.7963364,-9.4510145,-5.6615715,-2.258269,-0.79576147,-3.562032,7.991365,-6.7448378,-0.8612856,-0.760336,1.3512356,-1.6372167,1.4491912,0.73625314,1.5240204,-3.579997,-0.7876874,1.9255224,-1.2343768,-2.5913494,1.2338629,-1.4896761,1.963691,-3.0338807,-3.637331,1.1852396,-0.8489713,-5.795315,4.5979295,0.83175075,0.44304723,-0.8230612,1.9743611,-0.23973027,0.8485744,-2.2415152,-1.8968191,-1.4427515,0.23317915,-1.23512,0.604302,-0.66442347,-0.35887915,0.41630855,-4.019844,1.8480325,-3.5993533,0.16301648,1.8075784
微信图片_20251122072400_38_1274.jpg,8.389181,23.18347,0.8407761,-8.951393,-11.591966,-15.355687,9.834542,-4.2127004,-2.7998843,-0.01700214,0.8046124,-5.3653955,5.2324133,7.8677588,5.9019938,-5.2842197,-2.1126971,0.44063976,5.995106,5.454904,3.9068992,-3.0692506,-1.493276,-0.116846696,-8.146784,-0.06574091,-9.263021,-2.0150425,2.4554121,-4.205828,-5.9798913,-3.6645532,-6.595247,5.8740907,-2.016983,-4.478277,-0.5719566,5.9181304,0.19814606,-3.714224,-4.833964,3.908946,-1.0987785,2.6544616,-5.6365595,6.212823,3.252852,0.5558891,-6.161899,2.3460817
微信图片_20251122072402_39_1274.jpg,-5.2641573,0.36171278,-4.247957,1.9825809,-6.2666464,-1.5540664,-1.1418525,-0.91603297,-1.3875519,-0.77554965,-1.4483925,1.8977591,1.1934059,-0.2089904,-1.2071866,-2.6091094,0.82957864,-7.145888,1.6339774,-0.31932786,-1.0999663,-1.4753879,6.564388,2.5292695,5.9743586,-0.13831507,-0.5091594,0.9988476,-1.5571433,-2.0615692,3.8168547,1.4284552,-2.4229128,-5.8234606,-5.5558977,-0.24972424,-1.2825089,4.8385525,-5.126062,0.29227293,-2.898994,0.28478628,-0.23065323,-0.033599515,-9.316225,1.5844613,0.6537203,5.6817093,5.2655954,-5.8232903
微信图片_20251122072405_40_1274.jpg,6.825803,18.189602,5.6513104,-2.0578177,-9.487825,-5.8472567,0.034897774,-1.4677532,4.9366965,-3.9511325,1.9019009,4.37093,-6.2657332,-3.414541,-7.26144,3.646727,6.2650366,-6.0247083,-8.780225,3.3391197,-9.386582,-3.5028472,-2.1018875,-3.5145566,-0.5433048,-5.2029605,-0.55913943,19.108486,-12.278715,-7.317122,-3.1056225,4.5597634,10.237899,-9.742833,18.154888,-7.060957,0.47411555,-3.6073136,0.70426583,-1.3529195,-2.617599,2.460996,4.710188,6.069418,2.5639775,4.7237697,-3.8679316,-1.2658948,-0.2695188,-0.9788633
微信图片_20251122072408_41_1274.jpg,16.09686,23.730204,0.18499178,-8.193224,-14.577081,-18.249216,12.972609,0.8497456,3.5272443,-5.6166406,7.9018583,-9.791212,-6.24238,9.135388,3.1875207,-6.040778,-6.2777596,-15.445303,6.4234953,-6.2830477,0.5698514,1.3894119,11.735042,-6.3434997,-2.1520472,7.138961,-1.4757869,-5.3385143,-0.28262395,3.9838657,-2.6855247,0.5134121,-1.3743947,4.0783267,0.403581,-1.6851218,3.9968984,-10.1191,-3.3955908,2.90194,5.615605,-7.813582,10.793292,-5.6509,6.60236,-0.95183814,-7.47917,0.06422492,3.7435646,-0.026703387
微信图片_20251122072410_42_1274.jpg,0.6057032,-3.2345335,-10.174493,-2.5836754,5.7728047,0.3688021,6.744956,-1.2310456,-1.1843795,-8.135681,-6.281062,3.9758444,2.965678,-0.9156813,-7.5870476,-12.721413,-16.828442,-12.040412,-11.436683,-3.5209074,30.449347,-0.7844624,-4.3525696,18.548162,6.9004264,0.89361197,7.1964297,3.4717383,-5.132111,-0.3688219,-7.7428045,3.2476313,1.1357977,0.7825522,1.3974931,-2.5899076,0.72488403,-2.2121496,-0.6117589,-2.1464212,0.7768258,0.3734838,-2.1333237,-1.0136721,0.796022,1.787708,2.2752771,-3.384632,-1.6111826,-1.7329615
微信图片_20251122072411_43_1274.jpg,-7.744745,-1.0037427,-5.2421308,-3.7121766,3.2878115,-2.3069065,-0.26582503,0.9094035,-4.9811373,-3.5153706,-1.8293746,-3.8373072,-2.6772897,1.7262667,0.57710373,1.558419,0.24540207,-2.8649821,3.7363596,2.9356794,-1.4187453,-1.2604332,-4.624693,3.6045923,2.8469708,-1.460755,-3.1434777,-0.82174087,-1.9966171,1.8452162,2.6970334,2.2460725,3.8906198,-0.98023456,-1.4218358,-3.9985542,-3.6254203,1.888664,-1.2663182,-0.09501337,0.4592722,-1.0492975,-0.09126569,-0.29780757,-5.1531897,1.4170336,-3.0376518,-3.9262629,-1.4035265,-0.8414443
微信图片_20251122072412_44_1274.jpg,-2.3142595,4.471021,-11.45483,-0.42604372,2.7135496,-5.818994,6.4070253,12.3079815,-6.17559,-1.7625439,-4.0964303,10.807214,2.8074079,8.645368,6.7843924,-8.144097,6.460272,15.889991,17.281767,-8.384682,-0.6891053,8.656924,15.354149,10.861226,-2.6426659,1.6516337,7.938051,9.591804,-5.572925,-1.6523007,1.8700331,0.0047069867,-1.697398,-2.9164484,-4.551851,-3.5891027,-5.3984847,-1.2853539,-0.44980878,-3.0017962,1.0316095,7.654974,-2.29675,5.0474114,0.47842997,-0.8508489,-6.2121687,1.5903442,-4.9102697,1.2984606
微信图片_20251122072413_45_1274.jpg,-4.595963,-2.210227,-5.7015023,-2.007964,-5.6988006,1.0507019,-2.8665848,3.6664624,-0.55231607,-4.820319,0.9693737,5.178893,-0.5997071,1.0205221,-2.6680949,5.754034,-3.996136,-0.9094277,0.67485815,-0.5168041,1.5034695,-1.3799415,2.0619798,2.3334916,1.1087282,-0.89266187,-1.2984132,-3.2096004,-6.705559,1.8563619,2.7023582,2.549548,-0.51632154,-0.6570223,0.4468985,1.2795258,2.4355834,-1.1967765,6.443293,-2.391329,-0.77931917,-2.649736,-1.2052656,0.20402834,2.949407,-0.86151373,2.2372575,0.45062363,-0.062963046,-0.24576372
微信图片_20251122072519_46_1274.jpg,-5.3395705,-5.276934,-16.614056,-3.265054,5.6964564,0.16364615,5.913105,-5.3600683,-2.0426164,-1.5064445,-4.9552193,0.95742005,-2.5721753,0.016846633,-3.606069,-2.073787,-2.1440897,0.06614594,2.6127133,-3.0020628,-7.3243494,0.5890638,-0.2068722,-0.14989384,-0.10186847,-4.4228916,-1.6784524,-3.7287252,-6.6698465,10.095131,-2.5219183,-2.131835,-0.5347628,2.3429785,-1.4945045,3.144987,-3.8145835,-3.3402066,6.754785,1.0164933,-5.695443,0.68248194,3.944035,2.6299531,-3.334411,2.3618188,3.3989618,5.2336903,3.3675957,-1.6419153
微信图片_20251122072520_47_1274.jpg,7.3909965,4.790899,-9.956183,5.286202,4.907686,8.573725,-1.9389142,4.3892426,21.459284,-17.327965,-16.409544,15.815741,-3.122871,6.6349783,-3.5463006,11.891213,0.43866947,-10.034659,7.912268,2.5840747,-0.10041871,-5.784674,1.2523996,-4.2666817,-1.6887408,3.2678514,-5.1742983,3.805858,7.0048,-4.65807,-3.2098663,-9.466784,-16.947525,-4.2829323,6.099793,3.8992894,-0.60345453,-9.011728,4.4844217,2.4635282,2.173758,1.0720813,-8.352779,-3.889508,-4.1371913,-1.2726289,2.0478444,-2.3999584,-1.7809952,1.1632992
微信图片_20251122072521_48_1274.jpg,-5.4799547,3.4117427,-2.4765973,-3.1144862,-6.1198707,1.8139483,-11.026587,-1.627323,-5.034531,-1.5436656,-0.25531045,0.6736787,1.8472342,0.2683288,-0.54387546,-4.3378806,-0.38006476,0.59781677,1.1721008,1.9389298,-2.970868,-1.3397149,2.528122,-0.7618311,0.43376756,-6.9246864,1.3437475,2.492396,3.5402849,-0.16038746,-1.8938177,-0.6206293,0.282141,4.4900184,-0.65512663,2.2049747,0.35883665,1.4725082,-1.5645196,4.911014,-0.9818091,-2.1518319,0.48061493,1.1449124,-0.49239504,-1.0131843,-2.4792016,-3.031264,-4.1398015,1.3995291
微信图片_20251122072522_49_1274.jpg,-6.3682213,-0.81229144,-12.262725,-3.3050795,6.1232967,0.007428844,4.5046678,-6.708179,-2.9811096,-4.1650057,-7.537638,0.5127832,-2.9808104,1.904712,-3.6089697,-4.0964627,-0.49603242,2.8551502,1.7560581,-4.710639,-7.9587774,-0.24941427,-0.24364972,0.17010537,2.1744416,-5.656934,-2.4050589,-5.256427,-6.571487,11.33026,-6.8045607,-0.11977541,2.9424393,0.5295656,0.36513716,0.48466966,-4.0619483,-6.427979,8.094993,-0.1340802,-6.0894494,1.6950623,2.6398518,0.44391993,-2.8896625,2.005326,0.21825552,7.258661,2.3961496,-3.2323556
微信图片_20251122072523_50_1274.jpg,1.7638794,17.556496,1.2731701,-6.93939,-11.987469,-8.469364,1.8411074,-6.000602,-3.041211,-0.25052598,-0.74657154,-3.5285525,1.8975918,3.132471,2.0346837,-4.832508,-0.59375405,-3.4057055,2.047657,0.41585562,-1.6689669,-4.080794,0.22359867,-3.6173992,-4.493222,1.9632379,-3.544647,-0.97024965,-0.0029420783,-0.7545026,-3.054325,1.4658997,-1.0859078,2.6393275,-2.4031007,-0.8039395,0.77128017,2.328362,0.78856105,-0.26079917,-1.7875934,0.23996732,-2.8553488,0.79886067,-1.4713686,0.9901565,2.9291778,1.4380627,-0.958848,-1.834282
微信图片_20251122072525_51_1274.jpg,20.589668,21.022297,0.98749447,-6.0794067,-10.514025,-6.9593554,10.303795,14.296007,9.906003,-1.0573378,-0.36755323,5.1476398,-2.5219922,1.9506575,4.143368,4.861322,-13.667912,19.952038,-7.965708,14.974258,-0.8274418,16.48358,-3.453582,-3.4274049,19.235708,-1.2485046,3.6050422,-8.7851095,-3.1783638,-7.667106,-1.2936138,-9.625842,3.5295184,1.0768818,-0.33781704,5.5342493,-3.3820648,-2.847572,-3.0225952,2.5611825,-1.4172636,-1.4879638,0.26414868,0.47527552,0.3209316,3.9690602,0.5529701,0.8985716,1.1393424,0.09443857
微信图片_20251122072526_52_1274.jpg,-6.0036087,3.1962922,-2.749494,-5.9848804,-5.9114103,1.2857882,-6.5352025,-0.36826763,-3.9652736,-1.8019831,-4.1654015,0.9675687,2.1690454,-0.23669691,0.8384456,-1.015482,-0.9300672,1.5450325,2.4386053,1.2158204,-1.3944978,0.10059725,-2.2636325,0.2294147,-1.6739448,-2.9289074,0.950469,-1.5018641,0.6217698,-0.48805422,1.4841022,1.8584914,-0.78894174,-1.1493425,-0.34900528,3.1735575,0.9846744,-0.13372141,1.3362167,1.443007,-1.8349084,0.6304361,-1.7131321,0.81070095,-1.5362406,2.411796,-2.2967274,-1.1589302,-0.996265,-2.4985971
微信图片_20251122072527_53_1274.jpg,-7.275337,-0.7542471,-3.9553022,-6.2050614,-4.5087686,3.1500642,-9.925493,-0.28387067,-3.5677462,-2.734808,0.61729425,-1.3657925,1.1778898,0.69304633,1.5610522,2.7043264,-2.64247,1.5871469,2.693102,3.4017086,-0.018076725,1.3474766,-0.7742115,-0.19196928,-2.579963,-2.8591108,1.9703633,-2.821054,0.6160335,1.711176,-1.3274133,2.3094134,4.1065226,-5.104864,1.4057862,3.5500147,5.6789846,-2.6357887,0.55184764,1.8451155,1.1094058,1.7372507,-1.4184899,-0.8856043,-1.4108479,-0.52575487,1.569801,-0.4413669,0.65728337,0.22655539
微信图片_20251122072528_54_1274.jpg,3.383041,7.5400834,-3.7327628,4.140558,-1.8856474,11.866098,-7.3947916,-8.598683,16.685535,-8.000232,-12.893582,8.763719,-1.7893494,7.7066884,-17.91557,14.634073,4.2490954,2.3973923,3.883893,8.18452,10.785261,10.588171,0.83802253,-8.693344,-14.269507,4.443653,5.721107,-5.24284,-3.02265,6.9660425,0.003281529,9.174063,5.909018,7.128549,-3.418186,-6.845799,-5.4181337,7.321749,-11.192324,1.2814336,-1.82493,1.6320523,3.9258056,0.6147703,1.8967872,0.69349796,-1.003933,2.2987902,0.7001398,-2.4112961
微信图片_20251122072530_55_1274.jpg,-2.2780564,5.368702,-2.4289927,-4.3675423,-0.03696051,4.9436975,-4.3802524,-1.7253852,-6.6132894,-5.7234817,-6.4663806,4.905129,3.459217,-0.5169363,-1.969164,-14.848033,-2.7837613,-5.5300255,-2.2275045,1.9374108,-8.521855,-2.3645232,-0.59797883,-4.7682605,-4.4127584,1.9011316,1.4884868,-0.035779994,2.4353824,-4.4053993,4.2232094,-5.686408,6.123799,-3.1872206,-6.8853803,-1.2234601,-0.06872405,-0.24131571,-3.3623965,13.241373,-0.71410584,-0.6087411,-0.6322212,5.490798,3.623651,-0.039083928,-0.98102665,0.27346605,-2.1320517,-0.43913606
微信图片_20251122072535_56_1274.jpg,4.42228,4.6752353,-10.356746,-0.85228544,12.81396,-0.32831815,-0.071339555,7.1854253,4.7606735,-15.006881,-3.6897812,-1.0406178,-3.05806,3.073394,8.3119545,3.4691246,-0.36513066,-9.416035,8.198038,11.179548,-2.166475,-6.3481917,-8.234842,5.908463,7.760098,-2.6913083,-3.063585,12.608253,7.0072694,-3.2812672,9.098252,-1.2457426,12.565803,8.121829,-10.036587,2.3767693,2.7211752,7.196592,1.215698,-6.397047,2.992029,-0.6816886,3.3184025,-0.17919174,0.041273598,-0.8851151,-1.361889,7.2209005,3.4200516,-1.8933268
微信图片_20251122072536_57_1274.jpg,-1.3835355,-1.6629223,-11.763464,3.0198348,3.939392,0.1522435,-1.3488225,0.56877196,1.7644988,-4.0469117,-9.122049,4.3369384,-2.2421205,1.1678396,2.7986858,-4.092136,-4.6549,-2.0491745,2.1463995,-4.952342,-0.6704754,-3.7337449,-6.9898896,-2.206803,4.3231,-2.397999,-0.6754942,2.9019306,6.3242106,1.5593082,2.9712517,-0.14603521,-2.988124,-2.7582533,-2.3980622,0.884003,7.9557033,0.7268469,0.8927075,4.2783976,-9.985728,-4.585354,0.6828166,5.8718996,9.185431,-0.82821834,-2.208338,-0.761547,5.897013,0.29880926
微信图片_20251122072537_58_1274.jpg,17.946266,2.3393147,-21.953676,81.924614,-13.542267,-13.990634,-7.6737943,1.4783275,-4.5652585,-4.242218,-1.2989076,-11.264038,4.994472,-0.9311077,3.8316128,-2.6142597,-2.8314366,0.99302006,-1.8535544,1.1693423,-1.430384,0.71616274,-3.9013374,-0.6445781,-3.4271624,-0.7402136,1.3449204,-1.8645792,-0.087174006,-0.52635556,-1.1481916,1.4029686,1.6693355,-0.6996896,0.23726359,-0.08375231,-2.2639554,-1.4247932,1.2881641,0.050033372,0.43137926,0.44058636,-1.7596046,-0.27910802,0.06040094,0.18234593,-0.20510867,-0.08799773,-0.70678717,-0.10970265
微信图片_20251122072538_59_1274.jpg,3.0459638,13.165726,5.2679105,-1.9819436,2.568316,-4.480612,-1.660611,-2.0303397,-2.2445703,4.5064783,-3.6928146,-7.3963156,-4.6427956,-3.1510873,2.4946637,-2.8747208,4.3784695,5.858072,-1.3150729,-0.61758435,1.845641,-0.37248084,-3.769633,0.794752,2.7172592,0.5600433,2.2731683,6.89226,1.0107943,1.3787113,0.30335823,-1.1720108,-5.7710404,0.80951446,5.9098835,-4.8538713,-12.270004,-0.52247524,0.13839522,10.368259,-6.307175,-1.7904856,4.642329,-5.090459,-8.309896,-4.697455,4.553474,-2.2513325,5.2992287,-0.71281785
微信图片_20251122072539_60_1274.jpg,1.749033,7.8503146,5.6598015,1.3559169,9.53182,5.4764433,-3.7941444,-3.208434,-8.626606,-1.1175096,-13.344767,2.7695546,6.6493073,-4.632845,-5.70982,-14.941732,-3.3503191,4.954414,-13.820778,6.2472587,-0.80781347,2.744646,11.869565,-2.0382905,-6.238599,15.257719,-5.8344035,1.1731236,7.387376,8.50959,14.251547,-12.687695,8.822777,3.2858193,8.330761,0.45826843,2.3352757,-3.583937,1.7587996,-8.485731,-1.6349424,-0.6247396,0.68876714,-3.9744384,-2.7780783,-1.1052083,-0.6964131,-1.7507896,-1.0230858,-0.876689
微信图片_20251122072540_61_1274.jpg,4.8841624,14.7498455,7.1991262,10.293559,23.040722,-2.5786946,-15.3003025,-22.20918,-1.1190145,31.853647,10.130878,22.091652,-1.1103605,18.431763,8.088498,-0.35010746,-14.163412,-12.843231,2.76983,0.66730237,-3.9943018,11.668567,-3.4150217,-2.6422877,3.3767452,0.912362,-2.535755,4.581614,-3.4537208,2.090675,1.3487943,2.6020038,-0.42728704,1.1994174,0.02203257,3.1471806,-0.8303854,0.6456041,1.6723838,-0.44151843,2.2199724,1.6834426,-1.9533967,-1.364728,-0.54421365,1.9248512,0.087503195,-0.886392,-0.3140646,1.2675629
微信图片_20251122072541_62_1274.jpg,-5.4592915,4.012598,0.7866123,-0.4446101,0.69686395,2.3343856,-7.4818234,-5.688865,-1.2314998,-1.2972043,-4.7534595,-1.5527847,-2.4523578,-0.8156345,-1.8328211,-0.39030704,2.1826284,4.1873374,-3.4108744,1.4877363,0.1587316,-2.1071775,0.6889252,1.3333935,1.1476543,1.5450357,-0.028560892,-1.088113,1.6916504,1.8486524,0.6699041,2.4237993,-0.4061954,2.556035,2.0217319,-1.2670462,-0.5264288,-1.5498321,2.9158516,-0.014360052,-0.33261317,-2.3487623,-3.2735963,-2.8121493,-0.71214056,7.4934654,0.1893222,3.9971025,2.1584384,1.0559199
微信图片_20251122072543_63_1274.jpg,-0.6145304,8.302767,6.402376,-1.5945544,16.452755,-3.205776,-10.194459,-1.6822888,-11.061226,-2.9288652,-0.00021219597,-8.258629,-5.5904984,1.6286324,1.9669127,-0.8126242,13.87976,1.5904545,-0.7613221,10.799761,-0.6129364,-2.886435,-7.063339,1.1108866,1.1170181,21.83802,4.114863,4.2080116,-9.906305,5.6999125,-13.458115,-4.541908,-2.898829,-8.432406,-10.33839,7.435315,0.27044603,0.059276275,-3.8539445,2.248716,-4.755405,-1.7918727,-2.4833176,-1.251453,7.0073543,0.44667414,-1.7941637,-5.25176,-1.8283619,-1.2610298
微信图片_20251122072544_64_1274.jpg,23.02668,10.425575,12.151487,4.037875,20.609806,19.279575,-6.910899,17.656408,11.439227,16.824236,-3.5283267,-17.783384,11.360772,-10.867153,-11.520793,-8.46412,-7.751253,0.4538196,20.356256,0.0039297966,7.766714,-6.688732,8.719696,-8.596556,2.729716,-7.6967406,-10.3365,-0.011849124,-9.643091,-1.7027339,-1.7718618,-0.37583536,3.7997093,-2.863472,1.2160952,3.48868,-0.7265362,1.200823,-1.6578991,-0.049950644,-2.6848376,-0.44953272,-1.8202301,-1.2474163,3.598106,1.3438746,1.9883453,0.3806428,-0.956402,0.24130541
微信图片_20251122072545_65_1274.jpg,15.816326,30.333471,14.216592,-1.2280427,1.3472894,-10.505582,13.651895,-5.762496,-7.2315965,10.680627,-20.761824,10.345215,25.406439,-19.07485,9.412195,22.584515,3.7461047,-4.377686,-2.4750624,-12.319564,-0.5685181,-8.587063,-2.1402473,2.4791076,-0.92650574,-1.8682147,7.3411107,-1.7857574,-0.9224141,2.1929657,0.5269234,-1.5194712,4.3691883,-0.95632625,-6.2396607,1.5830529,-0.6213564,-3.5972178,-1.8222831,-0.28763515,1.700635,-1.7075013,1.5807906,-0.64922315,0.52848876,-0.7722734,-0.14024028,-0.8151613,-0.86186093,0.83050567
微信图片_20251122072546_66_1274.jpg,-0.25745496,9.638036,2.5425584,-2.7605517,7.145476,-0.14392473,-9.306259,-6.6921763,3.1937408,2.0337188,-4.102201,-4.3977327,2.095984,-0.6214203,4.740808,-3.5663276,0.6566288,8.469659,-5.4835873,0.5582676,4.434588,5.768213,-3.1349726,5.1767163,1.6796901,-9.193114,-7.859586,-0.3005712,8.452558,3.1049979,9.47706,2.8578632,-10.303673,-11.031217,-2.8113523,-13.439738,-2.0216632,-4.575808,-3.6778142,6.811118,7.0119567,0.5827269,4.7116137,1.7306347,9.003584,-2.0471616,2.160422,4.0062146,-6.171374,-3.4855886
微信图片_20251122072547_67_1274.jpg,-2.6766882,7.071524,7.2212033,0.9732741,14.3837805,2.4534218,-12.286172,-5.8367486,-3.5952818,1.094704,2.043811,-7.25462,-2.3107383,0.7437662,-1.7160205,3.9633589,8.082193,3.51577,1.3838615,7.3167863,2.7546253,-6.564762,-0.72069496,-0.20288767,4.549222,1.1306378,6.9913893,-3.385161,-5.0454507,-4.3669624,-1.4167581,-0.97305065,-5.28027,4.332842,-1.5328895,-4.4154797,0.69501,-7.161955,2.3541262,-3.756648,8.237603,-7.1315346,3.043725,4.8251605,-5.4061575,0.3065066,1.0114026,6.2147565,7.364393,4.6311655
微信图片_20251122072549_68_1274.jpg,11.8086,17.622086,5.8363056,-5.720953,-7.484168,-6.2785497,5.172394,-0.9856477,6.769867,2.4818733,2.806721,-12.767946,-17.076012,0.5103863,-3.4607797,-0.29097536,0.27530274,-5.2151375,0.9599292,-9.772006,2.142695,-3.3759406,0.673292,-2.4707975,3.2008867,3.0699427,13.627783,0.64235014,9.662636,5.0132365,14.01763,8.36674,2.5936637,-1.5708148,2.6062608,14.960475,-9.593094,-0.27197695,-0.51644546,2.760282,-1.3008218,7.5586925,-8.143449,3.6370332,2.0886893,0.12019231,5.030186,0.37141794,-0.38519144,0.9065692
微信图片_20251122072550_69_1274.jpg,1.8158095,15.693127,6.9267664,-4.568788,-2.8875258,-3.909969,-8.245282,-7.430551,1.56979,2.6742556,-5.7232776,-11.061726,0.051172774,-1.2402041,0.55429715,-0.4603333,6.477478,5.5846295,0.49269038,4.542592,10.589392,2.6055908,-4.133074,4.194082,0.4380029,-5.225706,-1.1829218,4.0317655,2.3995419,4.1413736,1.7145,-1.3238834,-7.185484,-0.8360553,3.4119182,7.5284796,-1.9762378,8.437586,10.73378,-2.7625306,5.436152,6.9796233,8.913389,-3.202806,0.86267304,-1.7459352,-9.311967,-3.4609034,6.470791,-1.4304801
微信图片_20251122072551_70_1274.jpg,6.5875344,16.028538,6.794813,0.5214529,36.31488,-3.599067,-0.38070473,10.60256,-6.338363,-17.261162,2.300749,-6.444107,-3.8059766,-10.9549465,2.1672964,5.2091217,5.6428146,-7.0396104,-7.4391947,-13.558235,-5.8252063,25.01939,1.0958368,5.1606455,-6.759379,-1.8302822,-8.516886,-5.517283,1.1942949,-8.367748,-4.1582875,4.894189,-1.5398241,4.6983314,3.3613005,3.607904,5.874851,5.5878253,0.36007077,3.6623027,-2.562128,2.554288,-2.0173671,-1.7804898,-0.5523873,0.42629388,0.38193867,0.19309676,1.3958056,-1.8347389
微信图片_20251122072552_71_1274.jpg,26.679682,9.881508,13.424188,11.425356,-13.704328,40.82436,19.404291,-7.206617,-29.277443,-3.094851,2.5553088,11.851892,-25.637266,-15.016784,8.191799,-0.7416016,-0.9464247,-0.7904806,6.652533,4.9229836,5.939325,1.0882194,0.5343272,-4.612631,-0.2894718,-2.383286,-2.7220864,0.28205103,-0.030526064,0.13299488,-0.39238065,1.4301525,-3.1413682,-0.80670124,-1.7918993,-1.7714643,0.8392201,0.7379157,0.6719851,-1.0740967,2.0401578,-0.014035385,-0.16719113,0.04811494,0.022605514,-0.21153592,-0.23052195,0.37083545,-0.58310914,-0.6352239
微信图片_20251122072553_72_1274.jpg,0.81757015,6.904189,6.17598,-0.92918354,21.095156,-0.22693838,-6.8040695,2.4056923,-1.1978341,-7.51641,1.011797,-12.096728,-6.0440207,0.18361352,0.7076884,-1.0725336,2.3617682,-4.8950815,-2.6156988,-0.3004646,-0.961128,2.1373541,1.18869,-4.6097655,3.909713,0.07742953,6.7085905,-0.9445177,-0.83928066,-2.2251987,4.966311,5.2525563,-0.8797118,1.5558751,-2.8709047,-5.7060056,-3.2315507,-9.32152,-1.2190896,-8.55248,3.6955347,-5.823073,-1.5294944,9.083075,-7.325042,-0.4477132,3.876167,-2.1698735,-6.402961,5.88841
微信图片_20251122072555_73_1274.jpg,-2.2122493,2.0759168,8.007527,2.7882528,16.741407,-3.9318106,-2.3210723,0.5379641,-4.9614315,2.819775,4.4267793,-1.0576814,-6.8059297,6.3218555,9.675669,8.595408,-4.799624,1.7447093,6.066357,2.6968148,1.3113886,-14.230157,5.219232,8.47165,-0.49553853,2.526367,9.556963,-12.953276,4.303562,-0.6380356,-2.3758872,-7.9547124,2.3473835,1.0596622,16.327045,-9.944981,1.5258693,11.128776,-0.68536526,3.9475293,-5.976748,-1.9927948,-2.940151,4.0417547,4.5962267,-2.4474425,1.3112406,3.6554282,-0.80709404,-3.1148884
微信图片_20251122072556_74_1274.jpg,13.718059,10.606416,6.8755536,6.111375,-0.6916202,4.8547635,-1.2836088,-1.9177231,17.736828,14.929423,3.7454274,0.517928,-21.602686,-1.7830524,-18.41184,-0.8993363,-3.7338896,9.818562,-1.5055395,-11.938873,-8.849817,-6.311879,-5.2987704,20.514462,-10.102321,-0.2684306,-0.9220443,0.43396023,6.6203194,-6.1072044,-4.704858,-8.092244,4.8817353,-0.8818748,-10.162721,-1.0323538,4.072114,-3.0788908,-2.0851793,-0.9344169,-0.35483286,-2.244995,3.7236547,-2.0186312,-4.5268598,0.3696931,-1.5347048,-2.3182037,-0.38215828,-0.46372744
微信图片_20251122072557_75_1274.jpg,-5.9125104,-1.6687156,2.4215734,2.637451,-1.1982968,1.3528168,-2.2551875,1.3268827,-0.891912,0.75428444,-1.530852,3.2060497,-2.0327349,-2.9067748,-5.1974506,3.4569407,-3.243263,2.5932376,1.4540551,-3.4787793,-2.650608,-1.8909947,2.2377937,2.6461494,-0.98941,0.057794414,5.5066633,-10.08165,1.8036101,1.0081153,2.1977308,3.0387485,-1.819173,1.2354605,1.2392203,-1.3628992,2.7578745,2.8196456,8.819924,-3.3742707,2.1604006,-2.787336,-0.94482684,2.5462317,3.2045255,14.688807,-7.825781,-2.5247722,0.94919723,2.1444094
微信图片_20251122072558_76_1274.png,10.39018,3.4016535,-9.191592,-0.83845544,-3.6639502,13.476227,-6.660973,1.151863,36.78778,-1.9000022,12.3333025,7.1523223,-1.3532596,-15.408046,30.70559,-10.380087,8.347047,0.4586593,-9.131906,-1.671566,0.7645819,-5.1778173,0.65749663,2.4934597,-3.1889017,4.5231214,-0.21830256,-4.412066,-11.143128,8.546609,3.0053244,1.7846079,-0.041976944,3.9135313,-0.8390333,-1.0796969,2.7328446,2.085117,1.1798037,1.1289824,-0.24149767,2.1005692,-0.98021847,1.2049081,-1.7819302,0.7637769,-0.6582663,-0.74309045,-1.1872364,0.74140584
微信图片_20251122072559_77_1274.png,-2.5537045,-7.1172047,-22.37012,0.9378921,14.7914095,0.23364411,16.461226,-14.071537,5.386927,1.7878188,-8.003047,-2.7795703,-5.7924805,-0.47224772,-1.8787879,-4.6190877,5.8639603,1.820583,-2.012888,-6.109369,-4.9106536,-2.748218,-5.5978737,-8.593763,13.507674,-2.4350805,-6.6233945,-6.335833,7.0719814,6.6401153,-12.854033,-3.117534,5.7764077,-1.5031618,3.970152,-2.2264633,-1.8159915,2.5368292,-8.137484,-6.2985697,8.858794,9.8646965,-0.38278806,0.95280296,1.6923064,-4.4765162,-3.1377015,-0.85212404,-2.6669939,3.563707
微信图片_20251122072600_78_1274.png,-6.7213116,0.3424431,-5.519799,-5.786697,-1.6092829,2.6219282,-3.8734355,-6.600035,-1.8150358,1.5664983,-3.8772647,-2.1048737,0.23955067,-0.7210724,2.427042,-4.348147,0.32939473,0.2610735,-1.4665416,-2.7379978,2.046078,-1.8804723,-4.914087,-2.8099937,-1.8631656,-0.8809654,-0.14630468,-2.9208815,1.623438,-4.7266774,-0.6442302,2.3586464,-0.5504501,0.3528651,1.8270938,1.761491,-2.7350495,1.1386203,0.5925085,0.018843265,-4.3345284,-1.9350853,0.017319256,-4.1278334,-4.040129,1.0925585,-3.093942,0.89696544,-3.7820425,-3.4610612
微信图片_20251122072602_79_1274.png,-1.3757523,-3.5823097,-10.669278,-4.5071616,-3.636033,5.8347545,-5.5421095,0.58295804,1.7517554,2.757699,4.0757613,1.32638,1.6389422,-3.1492565,4.161478,2.1909997,-6.0622735,-0.6673568,-0.15390088,-0.027106436,0.6360431,2.6546242,-4.836352,-4.3868694,-5.292158,-0.6162634,6.048841,-1.7824191,4.251453,-7.7017474,-3.5713692,0.82994944,0.5375111,2.891761,1.9660962,3.8316205,-5.322598,-1.3198535,3.9140584,-8.155814,-6.628904,-5.6149187,11.0325775,1.4670076,2.2078521,-13.216992,2.9650536,-2.4184322,-6.6818786,-5.5051827
微信图片_20251122072603_80_1274.png,6.809924,-11.338696,-23.29507,-0.06989223,21.655241,-2.4675505,33.036083,-21.097256,7.8395715,3.6923106,7.0763426,-6.525852,6.4548717,-6.922314,-4.4883637,0.18361074,-1.2458616,1.6455001,-2.0289037,22.932722,-7.972919,0.34435222,12.784266,6.6407557,-7.258593,-6.4338536,6.7869534,3.3580818,1.7805353,-1.0722816,1.6341256,7.012688,-4.8825254,-2.9076812,-1.2310715,4.4409614,2.5324998,0.6776265,1.9061141,2.9631033,-1.384846,-4.6024427,-0.68790054,-0.8309959,1.7515191,-0.17759338,2.148392,-4.201778,-0.8654978,0.25303885
微信图片_20251122072604_81_1274.png,-4.634229,1.9222153,-0.48615932,2.1073925,-8.391016,2.4881985,-8.99792,-1.0055395,-2.1995072,-0.11091391,5.822112,2.3344455,3.053328,-4.090613,-3.089461,1.2420802,4.7838435,-0.6581694,-4.94951,-1.0369304,-5.4291105,-2.7298987,12.013025,2.4320889,9.977473,-3.215014,1.393802,8.488195,2.936911,1.9478197,-6.824065,-0.5375119,-3.1797097,12.768289,-1.106533,-1.1602304,-0.15367852,0.6975894,-4.660532,0.46533185,1.8265976,0.9913172,-0.70016235,-5.670751,5.0771356,3.057096,6.373414,2.0720315,-0.18578774,-4.4547963
微信图片_20251122072605_82_1274.png,-4.887661,2.7562969,-0.8174767,1.5027555,-8.261105,1.6813456,-8.431818,0.31129476,-2.9140048,0.3855529,3.0965767,1.8016737,0.6815988,-4.083741,-4.194245,0.5798713,3.689151,-1.8288869,-4.179197,-2.0296826,-5.6632466,-2.1982234,10.327412,1.8245456,7.458564,-2.7045627,1.4407842,6.1469336,1.6847054,1.308024,-5.0401583,-1.1419389,-2.890181,9.995963,0.109188706,0.08198962,-1.2323886,1.8463274,-4.8534636,0.67827886,1.5172112,0.31088176,-2.4595182,-4.2456074,3.3562405,2.4381378,5.759345,0.23117763,-0.7439302,-3.5146384
微信图片_20251122072609_83_1274.png,-5.680572,-4.2800846,-16.1985,1.5105304,0.38039827,1.468511,5.2642794,-6.610371,4.267573,4.104571,-7.6983047,3.606351,-0.9744017,6.0707073,5.12651,-6.5149975,13.143947,12.634145,12.326058,-12.7136135,6.3133736,6.471899,2.2438269,-8.022359,3.5399985,6.098931,8.044766,4.6473417,1.6015171,-9.679565,-0.94698805,1.7514652,5.220912,-1.6635337,3.9348845,-0.30679083,9.579447,2.156496,5.2212424,-1.2465006,4.0526752,-7.2922125,1.9823618,-3.4805048,1.3791726,1.2762768,7.382453,-3.7484477,2.1939263,-3.363608
微信图片_20251122072613_84_1274.png,12.781073,-7.5884986,-12.959318,-2.2643335,-4.316631,2.836415,7.159249,28.19631,-4.5843053,27.27084,-12.688023,0.4768163,-6.8704324,15.62567,1.8591679,-2.3164759,24.14689,-14.183945,-14.019509,8.188384,4.5335054,2.0801678,0.06249078,2.2987952,-5.3737392,-8.429075,-0.30384716,-5.074211,0.87910545,-0.37800977,0.27295017,-2.4200678,-0.45622995,0.87529427,0.23020904,2.2377048,1.2772908,-1.787139,1.4990251,-1.8892301,-0.709145,-1.9265501,-0.41207677,1.2998773,3.271136,1.081254,0.6269058,4.22399,-2.509384,-1.6724633
微信图片_20251122072616_85_1274.png,-5.7152276,-5.713449,-12.196489,-3.9785635,5.8114586,1.2711788,1.5881462,-4.6260004,-2.2629304,3.6519122,2.4957466,-3.2311428,0.12167341,-2.4961395,2.7212481,0.98983127,-1.5299778,3.9320967,-4.227242,-1.786394,7.543273,-3.5920935,-2.3548508,-4.2242217,-1.2062905,1.4155021,2.5915053,3.538249,1.5230188,-8.729484,1.5009651,0.9988972,-0.1092503,3.3542604,0.844828,-2.343969,0.8769303,-5.0107617,-2.5503886,4.9437194,-7.6619596,4.1009808,-5.111447,-8.307302,3.1848924,1.6542621,-10.323202,12.434871,-0.71343154,11.822495
微信图片_20251122072620_86_1274.png,2.5543664,-5.494093,-6.559583,-1.422836,-2.7252712,2.5978327,5.1744757,13.071871,-2.8164356,10.780274,-6.0592895,0.7929616,1.7788445,0.5600203,-1.8140944,-2.6096194,1.3672249,2.1772466,-2.8076189,3.0341864,-5.307999,-0.8093291,-3.7956803,0.24527055,0.47079635,0.7773092,0.23353381,0.19338863,0.9671112,-0.44490504,1.5978469,7.1165624,-0.82605076,6.1548724,2.7529304,-5.5124893,-1.2662647,3.7500744,-4.8047485,3.8863537,3.3142703,-2.4174812,-6.103555,-4.0354686,-4.8336644,-0.7165964,-3.035015,-12.412646,9.50935,5.1406116
微信图片_20251122072624_87_1274.png,-8.822814,-7.616828,-9.841425,-3.74603,-0.24240081,0.8069321,1.9022025,-1.746494,-2.6142323,2.6974528,-0.39102322,-2.1581552,-1.066302,-2.2439954,-1.7892492,0.29987034,0.5614146,1.8983083,-0.54260314,-8.069356,-0.6086191,-1.0633572,-5.164303,-4.603292,2.3500104,2.1758022,-1.3233559,-0.5528325,-2.6216886,0.6558686,1.7610552,-0.531338,0.89114064,2.2360322,1.7155548,0.09094044,1.483667,2.6447551,-0.37708706,1.0943189,3.2791197,-1.8356045,-2.2974977,-1.0016055,-0.3749931,1.5811403,0.98218185,-2.5104353,-4.162958,1.2583227
微信图片_20251122072627_88_1274.png,-4.817336,-4.3613153,-6.466842,0.5118993,-8.790109,2.9225576,-4.127187,-3.1903365,3.1886873,3.5251186,8.27362,-1.6004215,0.5722953,-1.3444213,-1.8799374,11.153477,6.0590587,-7.8618627,-3.465449,-0.924275,8.851157,5.7996716,16.128756,-1.5337684,10.129433,4.753659,-8.472868,-1.7056973,8.2295885,-1.6828579,-3.8433473,-1.6059604,10.887217,-5.4638233,-10.117088,-9.619667,-4.5911427,0.6112676,14.167153,5.2244573,-7.655598,1.4210839,-0.5938122,3.6100984,-1.2181603,-4.0052085,-0.36272493,-6.0563107,3.0712187,7.1156178
微信图片_20251122072630_89_1274.png,-1.7906454,-3.092497,-7.803441,-3.4512808,-2.7318325,3.9762754,-2.323154,2.7036862,0.28175852,3.19026,7.10866,1.4159821,3.8474474,-5.3109913,1.6611964,-2.1308708,-1.2378865,-1.9230336,-2.1979191,-2.128184,-1.8684705,0.64690053,1.6974556,-1.5321844,-1.2785583,3.2515383,0.5411229,1.9352,4.2391157,-5.909782,-2.3513505,0.015819857,-5.4144907,0.13912125,-0.38368046,-2.0170631,-6.696439,-0.85042846,-5.126208,-7.862935,-5.2001653,4.1592402,3.4870179,2.0355678,-0.29799962,1.2226578,0.5922794,0.35488605,1.2327791,-0.8191192
微信图片_20251122072633_90_1274.png,-1.5675604,-13.632654,-20.317217,-1.081662,0.24961641,-2.641171,7.765557,-1.2781953,-3.4312813,8.674013,8.239586,-7.880046,-0.90984225,-4.3806567,-2.9457667,10.807246,-3.4053752,1.9537052,-0.5033139,-6.803181,10.260616,4.9143724,-4.697194,-4.683697,-6.4852724,3.3723788,-3.3926425,12.2510805,-6.2902703,3.8982985,4.186398,-14.789688,-2.1476722,10.358099,2.3738184,0.7088687,4.844996,0.8058463,-0.48328832,10.280891,5.534847,-0.62209094,-0.37809893,12.787511,-3.628535,-1.48315,0.81102604,2.005216,1.3782396,-2.2683177
微信图片_20251122072634_91_1274.png,-5.1954947,-6.1093283,-10.216133,-7.0310097,-3.4251814,2.5920067,-4.7403946,-2.0254505,-2.3938806,1.9874141,6.21416,-2.0201213,3.777212,-3.6290772,3.9930887,1.7518306,-1.6446856,1.0507545,1.1071175,1.9432013,4.5213847,2.797132,-1.7739823,-1.6943694,-6.828186,-0.8563237,-0.5387442,3.4976776,4.9220705,-3.703241,-0.5071279,2.2901313,1.4151531,-3.780304,0.16805628,2.6714785,3.5169425,-6.732315,-7.588826,-1.7317976,-3.3212063,1.1720489,-0.5560264,-3.3210495,-2.2772803,4.1089783,-3.0222652,1.7256523,5.5422597,2.1212366
微信图片_20251122072635_92_1274.png,-2.148618,-1.9381158,-6.8974347,-5.572706,-2.5495968,2.0263662,-10.045018,6.358305,-5.780601,0.44696888,6.899312,-4.1415277,0.41787922,0.63442445,8.766962,7.899799,-3.2631867,-0.0029756853,4.314105,5.870741,2.7453363,0.6951077,4.91392,4.1122565,-6.4108667,-2.1822503,3.0632384,-1.6770072,7.442783,7.4336395,-6.017799,-0.64750606,9.358779,-10.728295,4.531495,3.559264,7.3226213,-4.1223965,-4.76823,2.5804515,6.7947545,5.290966,1.0587032,-2.918343,-7.671724,-0.66244096,4.6036086,3.0166163,1.7889123,-0.43381748
微信图片_20251122072637_93_1274.png,-7.4359417,-5.482387,-7.3368235,-6.1041765,-4.596129,2.5899112,-2.370553,-7.2541857,0.31085446,2.9076905,-2.4004428,-1.5145059,2.833708,1.257516,2.55335,-6.160581,2.5018244,0.63755816,-1.5520232,-4.9672146,0.45198417,0.4870913,-4.114542,-5.61896,1.6340376,0.550219,0.40986305,-6.677095,0.79679805,-6.2015996,0.9262101,4.880487,3.266503,-5.6752367,-1.6398987,0.2569737,3.1381528,-0.95487726,-1.3851092,2.4683137,0.44361207,-5.5480256,-2.292342,-3.9185712,-4.122799,3.6436152,3.6894526,2.1052287,0.8984454,-6.807401
微信图片_20251122072925_94_1274.png,-3.9545689,-5.955713,-13.432695,-2.147121,-2.3189616,0.07553954,-0.25842232,3.3146663,-1.5271153,5.1744237,10.620752,-2.7161129,1.2723573,-4.9428973,0.51982665,9.96564,-1.2400632,0.8876363,-0.024096584,-1.1146685,1.2390716,0.20409665,-0.6526495,-1.6248053,-2.3969197,5.526768,-3.1328657,2.0392106,0.8669217,-1.4849691,3.2437277,-3.3119237,-2.0273097,-5.8062696,-0.5100812,-0.6424123,-4.160382,-1.2242426,-2.051583,-7.65028,0.26527464,0.67233,1.1486737,-3.814476,2.0272977,5.3955417,2.9368315,-0.7393215,1.2730321,-4.802921
微信图片_20251122072927_95_1274.png,20.024103,8.732362,8.043144,2.9820516,-3.4786444,41.719685,12.274334,-3.3650737,-1.0886005,-10.498012,15.747463,-10.889631,24.754152,29.338076,-1.6303893,4.2337537,4.9953623,2.6579492,-5.7805114,-9.592047,-5.24994,-0.7485592,-6.431839,7.1694727,3.090142,1.1535465,0.8411483,1.2661904,0.46109447,2.9060256,1.8574976,-0.8015912,0.33222327,-0.22045027,2.6305256,1.450188,-0.8836892,-1.0041496,0.18193454,0.74490345,-2.0319705,-0.85198635,0.43904352,-0.26779613,0.0018407673,0.06720034,-1.370587,-0.24890736,0.63303185,0.37682512
微信图片_20251122072928_96_1274.png,-1.2368729,-1.1970211,-6.0534754,-6.244249,-0.17788279,6.0996966,-3.5070837,0.8901551,-1.595291,-5.888867,2.8060546,4.268916,5.6779127,-1.8624891,-4.0611234,-10.250979,-4.4244547,-9.471202,-5.6983466,-0.98299044,-5.593072,-2.1137848,2.084751,-2.9782336,-8.118567,-1.2018224,9.32602,-5.778132,-6.661993,-12.4463825,-2.8191798,-8.368493,1.6175241,-5.812948,-1.8568363,1.2892193,-12.298453,10.18845,5.3239107,4.064796,14.337197,2.2927296,0.69049144,-3.1588469,1.0172826,-3.8410041,-0.39549392,3.6546323,4.29709,2.5867538
微信图片_20251122072929_97_1274.png,-4.385126,3.321367,-0.7968975,-2.2253516,-4.9307203,5.7088346,-14.083965,-3.4566655,-0.37361872,-0.7922302,1.6309944,-2.025576,3.7830667,-2.320602,0.60316694,2.4459302,1.3312196,2.736611,0.023846662,3.5958605,1.2465132,1.0727553,4.2007155,-1.2298696,2.039379,-5.1531334,5.6493483,1.4596919,7.4456234,-1.1793761,-7.7978954,-0.06872096,1.4373102,4.8483953,1.4465598,7.584945,5.078754,-0.06735668,1.8150367,1.6575844,3.12405,-0.42326134,1.6383119,3.7123404,-1.5300206,-0.20133421,-6.328977,-1.4641097,-9.308035,3.8225353
微信图片_20251122072931_98_1274.png,-5.6632853,-7.560719,-10.72555,-3.432135,1.5472481,-0.36758578,0.9452075,2.662809,-3.014915,-0.0051973355,6.9187803,-1.2716777,-0.5981771,-3.8889031,-5.786318,4.0087743,-2.261812,1.5169768,-1.1362956,-3.0450232,-2.0204148,-1.4307789,-4.2745776,-4.275224,-2.7349598,3.56539,-0.28496757,-0.86348426,-2.4962401,-0.49467134,4.4941955,-3.3742962,-3.8552454,1.7212342,-1.5757078,1.8985409,-3.4159436,0.4654051,0.8566327,-4.0132704,3.9169114,-0.29213023,-0.7288079,0.6011798,6.343653,2.4494586,-1.7192432,0.7888491,-0.02575734,0.06955333
微信图片_20251122072932_99_1274.png,-6.042373,-2.0492728,-9.266844,-4.7786727,-0.9895134,-0.46295246,-2.3005962,0.24282068,-3.2662358,1.6812065,5.655782,-2.065121,0.41072032,-3.1319683,0.005141475,4.829518,-1.4597307,-0.296748,-1.5697517,-2.3750372,-1.131885,-1.3315825,-0.50180995,-0.79562366,-0.43025205,1.988634,-2.4363225,-2.3813193,1.1700422,-1.3109521,-0.18915702,0.6012666,-2.3264494,-2.932156,-0.94688755,-2.134346,-3.6067467,0.9678233,-1.2220178,-5.8574705,-2.353333,0.6270767,-2.89314,-0.13180389,0.6392153,1.6002797,-0.713566,0.964614,-0.22491601,-1.1061835
微信图片_20251122072933_100_1274.png,96.92988,-53.733105,5.3390455,-16.408564,-2.375584,-16.310524,-15.415086,-10.943204,-5.1174507,-6.7837343,-1.7778141,2.4322295,1.3144326,0.8661654,-0.9201087,0.07568157,2.7336633,1.8369827,1.4709985,-2.843499,-1.0621326,0.31154218,0.5723308,0.8098351,1.109408,-1.3260398,-0.39738134,-0.59250873,-0.7502196,0.16426194,0.98168755,-0.523134,0.13209401,-0.20304361,0.35447362,-0.80148685,-0.36997038,1.0389109,-0.3046068,-0.9652995,-0.92412555,-0.10319267,-0.7165569,-0.23887208,-0.27648655,0.6169383,0.06985685,-0.31421265,-0.16142672,0.49736443
微信图片_20251122072934_101_1274.png,-3.7583497,-7.118578,-10.680545,-4.007181,-1.5343665,1.1273366,0.9790251,2.6327622,-1.5830717,4.5726266,6.1355953,-2.7729876,0.4116521,-2.429582,-1.1973504,7.606022,-3.6373675,-0.4332295,-3.2971606,-0.9773838,-0.7022087,0.03130229,-1.871204,-2.3060277,-1.13381,4.6121655,-2.549528,-0.81945634,0.82053614,-0.7537734,1.691293,-1.1899419,-2.6628368,-3.54407,-0.40225935,-0.9906438,-2.3151119,1.3722107,-0.606479,-6.146896,-0.72457284,1.0696467,-1.132293,0.9407061,3.6455262,0.40956366,-0.88102925,-0.74991846,-0.07355305,0.8410982
